svm_type c_svc
kernel_type rbf
gamma 0.142857
nr_class 3
total_sv 10
rho -0.00571325 0.106382 0.576542
label 1 2 3
nr_sv 3 3 4
SV
1 1 1:0.92 2:0.97 3:0.11 4:0.01 5:0.12 6:0.11 7:0.09 
1 1 1:0.91 2:0.99 3:0.21 4:0.02 5:0.09 6:0.12 7:0.09 
1 1 1:0.9 2:0.9 3:0.22 4:0.01 5:0.1 6:0.13 7:0.1 
-1 1 1:0.12 2:0.21 3:0.32 4:0.12 5:0.99 6:0.11 7:0.91 
-1 1 1:0.13 2:0.11 3:0.22 4:0.13 5:0.98 6:0.12 7:0.9 
-1 1 1:0.12 2:0.24 3:0.11 4:0.14 5:0.89 6:0.13 7:0.91 
-1 -1 1:0.13 2:0.31 3:0.82 4:0.12 5:0.89 6:0.11 7:0.1 
-1 -0 1:0.12 2:0.23 3:0.89 4:0.1 5:0.92 6:0.12 7:0.11 
-1 -1 1:0.11 2:0.11 3:0.87 4:0.01 5:0.93 6:0.13 7:0.12 
-0 -1 1:0.1 2:0.12 3:0.81 4:0.12 5:0.97 6:0.11 7:0.12 
